<?xml version="1.0"?>
<opencv_storage>
<cascade>
  <stageType>BOOST</stageType>
  <featureType>HAAR</featureType>
  <height>32</height>
  <width>32</width>
  <stageParams>
    <boostType>GAB</boostType>
    <minHitRate>9.9949997663497925e-01</minHitRate>
    <maxFalseAlarm>4.9000000953674316e-01</maxFalseAlarm>
    <weightTrimRate>9.4999998807907104e-01</weightTrimRate>
    <maxDepth>1</maxDepth>
    <maxWeakCount>100</maxWeakCount></stageParams>
  <featureParams>
    <maxCatCount>0</maxCatCount>
    <featSize>1</featSize>
    <mode>BASIC</mode></featureParams>
  <stageNum>8</stageNum>
  <stages>
    <!-- stage 0 -->
    <_>
      <maxWeakCount>3</maxWeakCount>
      <stageThreshold>-9.9699258804321289e-01</stageThreshold>
      <weakClassifiers>
        <_>
          <internalNodes>
            0 -1 2 -1.0796073079109192e-01</internalNodes>
          <leafValues>
            9.7826087474822998e-01 -9.4357979297637939e-01</leafValues></_>
        <_>
          <internalNodes>
            0 -1 3 -1.0402236878871918e-01</internalNodes>
          <leafValues>
            8.6152052879333496e-01 -9.2713683843612671e-01</leafValues></_>
        <_>
          <internalNodes>
            0 -1 15 -6.4594715833663940e-02</internalNodes>
          <leafValues>
            8.9859020709991455e-01 -9.1493332386016846e-01</leafValues></_></weakClassifiers></_>
    <!-- stage 1 -->
    <_>
      <maxWeakCount>2</maxWeakCount>
      <stageThreshold>-3.6187213659286499e-01</stageThreshold>
      <weakClassifiers>
        <_>
          <internalNodes>
            0 -1 21 -1.0532712936401367e-01</internalNodes>
          <leafValues>
            8.3783781528472900e-01 -9.6432113647460938e-01</leafValues></_>
        <_>
          <internalNodes>
            0 -1 12 -8.5587017238140106e-02</internalNodes>
          <leafValues>
            6.0244894027709961e-01 -9.7284877300262451e-01</leafValues></_></weakClassifiers></_>
    <!-- stage 2 -->
    <_>
      <maxWeakCount>3</maxWeakCount>
      <stageThreshold>-1.5077517032623291e+00</stageThreshold>
      <weakClassifiers>
        <_>
          <internalNodes>
            0 -1 7 -4.2811371386051178e-02</internalNodes>
          <leafValues>
            7.0093458890914917e-01 -9.4274431467056274e-01</leafValues></_>
        <_>
          <internalNodes>
            0 -1 17 -5.1574837416410446e-02</internalNodes>
          <leafValues>
            4.1191315650939941e-01 -9.6256768703460693e-01</leafValues></_>
        <_>
          <internalNodes>
            0 -1 4 4.4623240828514099e-02</internalNodes>
          <leafValues>
            -9.7692060470581055e-01 4.1287687420845032e-01</leafValues></_></weakClassifiers></_>
    <!-- stage 3 -->
    <_>
      <maxWeakCount>3</maxWeakCount>
      <stageThreshold>-1.5152479410171509e+00</stageThreshold>
      <weakClassifiers>
        <_>
          <internalNodes>
            0 -1 0 -2.0404200255870819e-01</internalNodes>
          <leafValues>
            3.0434781312942505e-01 -9.1044777631759644e-01</leafValues></_>
        <_>
          <internalNodes>
            0 -1 14 -1.2647720985114574e-02</internalNodes>
          <leafValues>
            3.6073246598243713e-01 -9.2728501558303833e-01</leafValues></_>
        <_>
          <internalNodes>
            0 -1 22 1.9338164478540421e-02</internalNodes>
          <leafValues>
            -8.9231073856353760e-01 4.5178785920143127e-01</leafValues></_></weakClassifiers></_>
    <!-- stage 4 -->
    <_>
      <maxWeakCount>3</maxWeakCount>
      <stageThreshold>-1.6904723644256592e+00</stageThreshold>
      <weakClassifiers>
        <_>
          <internalNodes>
            0 -1 6 4.3864123523235321e-02</internalNodes>
          <leafValues>
            -9.4249200820922852e-01 2.7624309062957764e-02</leafValues></_>
        <_>
          <internalNodes>
            0 -1 20 -1.8645173311233521e-01</internalNodes>
          <leafValues>
            5.6580662727355957e-01 -7.9314404726028442e-01</leafValues></_>
        <_>
          <internalNodes>
            0 -1 5 -4.4226914644241333e-02</internalNodes>
          <leafValues>
            4.5457875728607178e-01 -9.2495262622833252e-01</leafValues></_></weakClassifiers></_>
    <!-- stage 5 -->
    <_>
      <maxWeakCount>4</maxWeakCount>
      <stageThreshold>-2.1855828762054443e+00</stageThreshold>
      <weakClassifiers>
        <_>
          <internalNodes>
            0 -1 18 -4.5588914304971695e-02</internalNodes>
          <leafValues>
            8.7499998509883881e-02 -9.3124997615814209e-01</leafValues></_>
        <_>
          <internalNodes>
            0 -1 11 -1.2836393713951111e-01</internalNodes>
          <leafValues>
            5.5045479536056519e-01 -7.4567747116088867e-01</leafValues></_>
        <_>
          <internalNodes>
            0 -1 16 5.5238693021237850e-03</internalNodes>
          <leafValues>
            -8.9961975812911987e-01 4.1601920127868652e-01</leafValues></_>
        <_>
          <internalNodes>
            0 -1 1 -1.9219251349568367e-02</internalNodes>
          <leafValues>
            3.9096441864967346e-01 -9.5916044712066650e-01</leafValues></_></weakClassifiers></_>
    <!-- stage 6 -->
    <_>
      <maxWeakCount>2</maxWeakCount>
      <stageThreshold>-7.7156132459640503e-01</stageThreshold>
      <weakClassifiers>
        <_>
          <internalNodes>
            0 -1 10 -3.9042711257934570e-02</internalNodes>
          <leafValues>
            2.0000000298023224e-01 -9.2653059959411621e-01</leafValues></_>
        <_>
          <internalNodes>
            0 -1 19 2.3737091571092606e-02</internalNodes>
          <leafValues>
            -9.7156131267547607e-01 2.0748592913150787e-01</leafValues></_></weakClassifiers></_>
    <!-- stage 7 -->
    <_>
      <maxWeakCount>3</maxWeakCount>
      <stageThreshold>-1.2867187261581421e+00</stageThreshold>
      <weakClassifiers>
        <_>
          <internalNodes>
            0 -1 8 -1.2689256668090820e-01</internalNodes>
          <leafValues>
            5.6521737575531006e-01 -8.7440532445907593e-01</leafValues></_>
        <_>
          <internalNodes>
            0 -1 9 -1.1365549266338348e-01</internalNodes>
          <leafValues>
            5.9613418579101563e-01 -8.0407726764678955e-01</leafValues></_>
        <_>
          <internalNodes>
            0 -1 13 5.1128678023815155e-03</internalNodes>
          <leafValues>
            -9.6933674812316895e-01 3.9176383614540100e-01</leafValues></_></weakClassifiers></_></stages>
  <features>
    <_>
      <rects>
        <_>
          0 7 12 17 -1.</_>
        <_>
          4 7 4 17 3.</_></rects>
      <tilted>0</tilted></_>
    <_>
      <rects>
        <_>
          0 21 8 9 -1.</_>
        <_>
          4 21 4 9 2.</_></rects>
      <tilted>0</tilted></_>
    <_>
      <rects>
        <_>
          1 5 9 18 -1.</_>
        <_>
          4 5 3 18 3.</_></rects>
      <tilted>0</tilted></_>
    <_>
      <rects>
        <_>
          1 10 12 17 -1.</_>
        <_>
          5 10 4 17 3.</_></rects>
      <tilted>0</tilted></_>
    <_>
      <rects>
        <_>
          2 9 27 4 -1.</_>
        <_>
          11 9 9 4 3.</_></rects>
      <tilted>0</tilted></_>
    <_>
      <rects>
        <_>
          2 13 14 18 -1.</_>
        <_>
          2 13 7 9 2.</_>
        <_>
          9 22 7 9 2.</_></rects>
      <tilted>0</tilted></_>
    <_>
      <rects>
        <_>
          4 0 8 16 -1.</_>
        <_>
          4 0 4 8 2.</_>
        <_>
          8 8 4 8 2.</_></rects>
      <tilted>0</tilted></_>
    <_>
      <rects>
        <_>
          4 16 8 16 -1.</_>
        <_>
          4 16 4 8 2.</_>
        <_>
          8 24 4 8 2.</_></rects>
      <tilted>0</tilted></_>
    <_>
      <rects>
        <_>
          6 0 16 9 -1.</_>
        <_>
          6 3 16 3 3.</_></rects>
      <tilted>0</tilted></_>
    <_>
      <rects>
        <_>
          7 0 20 8 -1.</_>
        <_>
          7 4 20 4 2.</_></rects>
      <tilted>0</tilted></_>
    <_>
      <rects>
        <_>
          7 3 12 6 -1.</_>
        <_>
          7 5 12 2 3.</_></rects>
      <tilted>0</tilted></_>
    <_>
      <rects>
        <_>
          7 20 14 12 -1.</_>
        <_>
          7 24 14 4 3.</_></rects>
      <tilted>0</tilted></_>
    <_>
      <rects>
        <_>
          8 0 15 12 -1.</_>
        <_>
          8 4 15 4 3.</_></rects>
      <tilted>0</tilted></_>
    <_>
      <rects>
        <_>
          8 15 10 8 -1.</_>
        <_>
          8 15 5 4 2.</_>
        <_>
          13 19 5 4 2.</_></rects>
      <tilted>0</tilted></_>
    <_>
      <rects>
        <_>
          11 13 9 6 -1.</_>
        <_>
          14 13 3 6 3.</_></rects>
      <tilted>0</tilted></_>
    <_>
      <rects>
        <_>
          13 20 12 12 -1.</_>
        <_>
          13 24 12 4 3.</_></rects>
      <tilted>0</tilted></_>
    <_>
      <rects>
        <_>
          15 5 6 14 -1.</_>
        <_>
          15 5 3 7 2.</_>
        <_>
          18 12 3 7 2.</_></rects>
      <tilted>0</tilted></_>
    <_>
      <rects>
        <_>
          17 0 12 20 -1.</_>
        <_>
          17 0 6 10 2.</_>
        <_>
          23 10 6 10 2.</_></rects>
      <tilted>0</tilted></_>
    <_>
      <rects>
        <_>
          18 3 12 10 -1.</_>
        <_>
          18 3 6 5 2.</_>
        <_>
          24 8 6 5 2.</_></rects>
      <tilted>0</tilted></_>
    <_>
      <rects>
        <_>
          18 18 12 10 -1.</_>
        <_>
          18 18 6 5 2.</_>
        <_>
          24 23 6 5 2.</_></rects>
      <tilted>0</tilted></_>
    <_>
      <rects>
        <_>
          20 7 12 17 -1.</_>
        <_>
          24 7 4 17 3.</_></rects>
      <tilted>0</tilted></_>
    <_>
      <rects>
        <_>
          20 9 12 14 -1.</_>
        <_>
          24 9 4 14 3.</_></rects>
      <tilted>0</tilted></_>
    <_>
      <rects>
        <_>
          23 24 6 8 -1.</_>
        <_>
          23 28 6 4 2.</_></rects>
      <tilted>0</tilted></_></features></cascade>
</opencv_storage>
